<?xml version="1.0"?>
<opencv_storage>
<cascade>
  <stageType>BOOST</stageType>
  <featureType>HAAR</featureType>
  <height>24</height>
  <width>24</width>
  <stageParams>
    <boostType>GAB</boostType>
    <minHitRate>9.9500000476837158e-01</minHitRate>
    <maxFalseAlarm>5.0000000000000000e-01</maxFalseAlarm>
    <weightTrimRate>9.4999998807907104e-01</weightTrimRate>
    <maxDepth>1</maxDepth>
    <maxWeakCount>100</maxWeakCount></stageParams>
  <featureParams>
    <maxCatCount>0</maxCatCount>
    <featSize>1</featSize>
    <mode>BASIC</mode></featureParams>
  <stageNum>15</stageNum>
  <stages>
    <!-- stage 0 -->
    <_>
      <maxWeakCount>3</maxWeakCount>
      <stageThreshold>-1.8390655517578125e+00</stageThreshold>
      <weakClassifiers>
        <_>
          <internalNodes>
            0 -1 12 -7.9605579376220703e-02</internalNodes>
          <leafValues>
            6.0000002384185791e-01 -9.7041422128677368e-01</leafValues></_>
        <_>
          <internalNodes>
            0 -1 13 -1.8084487318992615e-01</internalNodes>
          <leafValues>
            -4.1736830025911331e-02 -9.6036356687545776e-01</leafValues></_>
        <_>
          <internalNodes>
            0 -1 9 -3.7394884973764420e-02</internalNodes>
          <leafValues>
            4.2511889338493347e-01 -8.2691448926925659e-01</leafValues></_></weakClassifiers></_>
    <!-- stage 1 -->
    <_>
      <maxWeakCount>4</maxWeakCount>
      <stageThreshold>-2.3415112495422363e+00</stageThreshold>
      <weakClassifiers>
        <_>
          <internalNodes>
            0 -1 14 9.4153955578804016e-02</internalNodes>
          <leafValues>
            -9.7041422128677368e-01 6.0000002384185791e-01</leafValues></_>
        <_>
          <internalNodes>
            0 -1 34 9.0273439884185791e-02</internalNodes>
          <leafValues>
            -8.9463508129119873e-01 4.1562178730964661e-01</leafValues></_>
        <_>
          <internalNodes>
            0 -1 30 7.2942422702908516e-03</internalNodes>
          <leafValues>
            -7.9607510566711426e-01 3.5087391734123230e-01</leafValues></_>
        <_>
          <internalNodes>
            0 -1 46 -3.3462111605331302e-04</internalNodes>
          <leafValues>
            3.1961327791213989e-01 -1.</leafValues></_></weakClassifiers></_>
    <!-- stage 2 -->
    <_>
      <maxWeakCount>3</maxWeakCount>
      <stageThreshold>-2.0885820388793945e+00</stageThreshold>
      <weakClassifiers>
        <_>
          <internalNodes>
            0 -1 31 1.7734023928642273e-01</internalNodes>
          <leafValues>
            -9.7044336795806885e-01 1.</leafValues></_>
        <_>
          <internalNodes>
            0 -1 28 -1.7198775708675385e-01</internalNodes>
          <leafValues>
            -3.3556410670280457e-01 -9.6651196479797363e-01</leafValues></_>
        <_>
          <internalNodes>
            0 -1 0 1.9246190786361694e-02</internalNodes>
          <leafValues>
            -7.8257453441619873e-01 3.6481246352195740e-01</leafValues></_></weakClassifiers></_>
    <!-- stage 3 -->
    <_>
      <maxWeakCount>3</maxWeakCount>
      <stageThreshold>-1.6263406276702881e+00</stageThreshold>
      <weakClassifiers>
        <_>
          <internalNodes>
            0 -1 36 -1.9681878387928009e-01</internalNodes>
          <leafValues>
            1. -9.6850395202636719e-01</leafValues></_>
        <_>
          <internalNodes>
            0 -1 26 5.0665318965911865e-02</internalNodes>
          <leafValues>
            -8.7892353534698486e-01 2.2076998651027679e-01</leafValues></_>
        <_>
          <internalNodes>
            0 -1 42 -7.1183643303811550e-03</internalNodes>
          <leafValues>
            2.2108684480190277e-01 -9.8539674282073975e-01</leafValues></_></weakClassifiers></_>
    <!-- stage 4 -->
    <_>
      <maxWeakCount>3</maxWeakCount>
      <stageThreshold>-1.8408339023590088e+00</stageThreshold>
      <weakClassifiers>
        <_>
          <internalNodes>
            0 -1 10 -8.5375949740409851e-02</internalNodes>
          <leafValues>
            1. -9.6850395202636719e-01</leafValues></_>
        <_>
          <internalNodes>
            0 -1 17 1.0215546190738678e-01</internalNodes>
          <leafValues>
            -8.7880605459213257e-01 2.0561751723289490e-01</leafValues></_>
        <_>
          <internalNodes>
            0 -1 43 -1.9902683561667800e-04</internalNodes>
          <leafValues>
            6.4761037938296795e-03 -9.8144918680191040e-01</leafValues></_></weakClassifiers></_>
    <!-- stage 5 -->
    <_>
      <maxWeakCount>3</maxWeakCount>
      <stageThreshold>-1.7389553785324097e+00</stageThreshold>
      <weakClassifiers>
        <_>
          <internalNodes>
            0 -1 35 -1.4362183213233948e-01</internalNodes>
          <leafValues>
            1. -9.6850395202636719e-01</leafValues></_>
        <_>
          <internalNodes>
            0 -1 19 -5.3898763656616211e-01</internalNodes>
          <leafValues>
            5.5247062444686890e-01 -8.4514278173446655e-01</leafValues></_>
        <_>
          <internalNodes>
            0 -1 45 -5.6482548825442791e-04</internalNodes>
          <leafValues>
            7.4691422283649445e-02 -9.6553939580917358e-01</leafValues></_></weakClassifiers></_>
    <!-- stage 6 -->
    <_>
      <maxWeakCount>3</maxWeakCount>
      <stageThreshold>-1.6684134006500244e+00</stageThreshold>
      <weakClassifiers>
        <_>
          <internalNodes>
            0 -1 6 -1.5173324942588806e-01</internalNodes>
          <leafValues>
            1. -9.6850395202636719e-01</leafValues></_>
        <_>
          <internalNodes>
            0 -1 40 -6.4586251974105835e-02</internalNodes>
          <leafValues>
            1.6233599185943604e-01 -8.7845218181610107e-01</leafValues></_>
        <_>
          <internalNodes>
            0 -1 22 -1.7076584696769714e-01</internalNodes>
          <leafValues>
            1.7854267358779907e-01 -7.8442168235778809e-01</leafValues></_></weakClassifiers></_>
    <!-- stage 7 -->
    <_>
      <maxWeakCount>3</maxWeakCount>
      <stageThreshold>-1.7922918796539307e+00</stageThreshold>
      <weakClassifiers>
        <_>
          <internalNodes>
            0 -1 24 -1.5584126114845276e-02</internalNodes>
          <leafValues>
            1. -9.6850395202636719e-01</leafValues></_>
        <_>
          <internalNodes>
            0 -1 11 8.1097170710563660e-02</internalNodes>
          <leafValues>
            -8.7868833541870117e-01 1.9083659350872040e-01</leafValues></_>
        <_>
          <internalNodes>
            0 -1 8 2.9548860766226426e-05</internalNodes>
          <leafValues>
            -9.2686146497726440e-01 5.4900400340557098e-02</leafValues></_></weakClassifiers></_>
    <!-- stage 8 -->
    <_>
      <maxWeakCount>3</maxWeakCount>
      <stageThreshold>-1.7358590364456177e+00</stageThreshold>
      <weakClassifiers>
        <_>
          <internalNodes>
            0 -1 2 -1.8054914474487305e-01</internalNodes>
          <leafValues>
            1. -9.6656835079193115e-01</leafValues></_>
        <_>
          <internalNodes>
            0 -1 33 -8.1631205976009369e-03</internalNodes>
          <leafValues>
            2.5043371319770813e-01 -8.6710745096206665e-01</leafValues></_>
        <_>
          <internalNodes>
            0 -1 18 -1.6789291054010391e-02</internalNodes>
          <leafValues>
            9.7816735506057739e-02 -8.3820158243179321e-01</leafValues></_></weakClassifiers></_>
    <!-- stage 9 -->
    <_>
      <maxWeakCount>4</maxWeakCount>
      <stageThreshold>-2.1441485881805420e+00</stageThreshold>
      <weakClassifiers>
        <_>
          <internalNodes>
            0 -1 41 1.5017677843570709e-01</internalNodes>
          <leafValues>
            -9.6850395202636719e-01 1.</leafValues></_>
        <_>
          <internalNodes>
            0 -1 23 -2.5232499465346336e-02</internalNodes>
          <leafValues>
            5.9714365005493164e-01 -8.4528666734695435e-01</leafValues></_>
        <_>
          <internalNodes>
            0 -1 20 4.0351185947656631e-02</internalNodes>
          <leafValues>
            -7.4531233310699463e-01 4.1581887006759644e-01</leafValues></_>
        <_>
          <internalNodes>
            0 -1 21 -7.3098428547382355e-03</internalNodes>
          <leafValues>
            4.1495427489280701e-01 -7.3187047243118286e-01</leafValues></_></weakClassifiers></_>
    <!-- stage 10 -->
    <_>
      <maxWeakCount>3</maxWeakCount>
      <stageThreshold>-1.7141093015670776e+00</stageThreshold>
      <weakClassifiers>
        <_>
          <internalNodes>
            0 -1 5 -7.6151281595230103e-02</internalNodes>
          <leafValues>
            1. -9.6656835079193115e-01</leafValues></_>
        <_>
          <internalNodes>
            0 -1 32 8.7497103959321976e-03</internalNodes>
          <leafValues>
            -8.3344221115112305e-01 4.3070983886718750e-01</leafValues></_>
        <_>
          <internalNodes>
            0 -1 25 -1.1140401475131512e-02</internalNodes>
          <leafValues>
            8.5901238024234772e-02 -9.3381112813949585e-01</leafValues></_></weakClassifiers></_>
    <!-- stage 11 -->
    <_>
      <maxWeakCount>3</maxWeakCount>
      <stageThreshold>-1.7489359378814697e+00</stageThreshold>
      <weakClassifiers>
        <_>
          <internalNodes>
            0 -1 15 7.6973922550678253e-02</internalNodes>
          <leafValues>
            -9.6850395202636719e-01 1.</leafValues></_>
        <_>
          <internalNodes>
            0 -1 4 1.1198650300502777e-01</internalNodes>
          <leafValues>
            -8.3423262834548950e-01 8.2466816902160645e-01</leafValues></_>
        <_>
          <internalNodes>
            0 -1 7 -1.4589732745662332e-04</internalNodes>
          <leafValues>
            -1. 5.3800676017999649e-02</leafValues></_></weakClassifiers></_>
    <!-- stage 12 -->
    <_>
      <maxWeakCount>3</maxWeakCount>
      <stageThreshold>-1.7612944841384888e+00</stageThreshold>
      <weakClassifiers>
        <_>
          <internalNodes>
            0 -1 27 -1.4042887091636658e-01</internalNodes>
          <leafValues>
            6.0000002384185791e-01 -9.7041422128677368e-01</leafValues></_>
        <_>
          <internalNodes>
            0 -1 44 5.7985652238130569e-03</internalNodes>
          <leafValues>
            -8.3619958162307739e-01 8.2527834177017212e-01</leafValues></_>
        <_>
          <internalNodes>
            0 -1 3 3.6826888390351087e-05</internalNodes>
          <leafValues>
            -9.2736905813217163e-01 4.5319292694330215e-02</leafValues></_></weakClassifiers></_>
    <!-- stage 13 -->
    <_>
      <maxWeakCount>4</maxWeakCount>
      <stageThreshold>-2.2534403800964355e+00</stageThreshold>
      <weakClassifiers>
        <_>
          <internalNodes>
            0 -1 29 1.1625492945313454e-02</internalNodes>
          <leafValues>
            -9.7041422128677368e-01 6.0000002384185791e-01</leafValues></_>
        <_>
          <internalNodes>
            0 -1 3 1.3266937457956374e-04</internalNodes>
          <leafValues>
            -3.9035383611917496e-02 -8.9328348636627197e-01</leafValues></_>
        <_>
          <internalNodes>
            0 -1 37 3.3815349452197552e-03</internalNodes>
          <leafValues>
            -6.9580394029617310e-01 3.3312231302261353e-01</leafValues></_>
        <_>
          <internalNodes>
            0 -1 38 2.3766433514538221e-05</internalNodes>
          <leafValues>
            -9.0819555521011353e-01 3.0606120824813843e-01</leafValues></_></weakClassifiers></_>
    <!-- stage 14 -->
    <_>
      <maxWeakCount>4</maxWeakCount>
      <stageThreshold>-2.2601280212402344e+00</stageThreshold>
      <weakClassifiers>
        <_>
          <internalNodes>
            0 -1 1 -3.0806607007980347e-01</internalNodes>
          <leafValues>
            1. -9.6850395202636719e-01</leafValues></_>
        <_>
          <internalNodes>
            0 -1 39 1.8841717392206192e-02</internalNodes>
          <leafValues>
            -8.4600210189819336e-01 8.6555457115173340e-01</leafValues></_>
        <_>
          <internalNodes>
            0 -1 3 4.0199229260906577e-04</internalNodes>
          <leafValues>
            3.5781589150428772e-01 -7.3916476964950562e-01</leafValues></_>
        <_>
          <internalNodes>
            0 -1 16 6.9000714574940503e-05</internalNodes>
          <leafValues>
            -9.4978129863739014e-01 2.9354286193847656e-01</leafValues></_></weakClassifiers></_></stages>
  <features>
    <_>
      <rects>
        <_>
          0 0 6 7 -1.</_>
        <_>
          3 0 3 7 2.</_></rects>
      <tilted>0</tilted></_>
    <_>
      <rects>
        <_>
          0 0 14 24 -1.</_>
        <_>
          7 0 7 24 2.</_></rects>
      <tilted>0</tilted></_>
    <_>
      <rects>
        <_>
          0 1 14 9 -1.</_>
        <_>
          7 1 7 9 2.</_></rects>
      <tilted>0</tilted></_>
    <_>
      <rects>
        <_>
          0 2 1 6 -1.</_>
        <_>
          0 4 1 2 3.</_></rects>
      <tilted>0</tilted></_>
    <_>
      <rects>
        <_>
          0 3 16 8 -1.</_>
        <_>
          0 3 8 4 2.</_>
        <_>
          8 7 8 4 2.</_></rects>
      <tilted>0</tilted></_>
    <_>
      <rects>
        <_>
          0 5 14 3 -1.</_>
        <_>
          7 5 7 3 2.</_></rects>
      <tilted>0</tilted></_>
    <_>
      <rects>
        <_>
          0 11 21 3 -1.</_>
        <_>
          7 11 7 3 3.</_></rects>
      <tilted>0</tilted></_>
    <_>
      <rects>
        <_>
          0 20 1 3 -1.</_>
        <_>
          0 21 1 1 3.</_></rects>
      <tilted>0</tilted></_>
    <_>
      <rects>
        <_>
          0 21 2 1 -1.</_>
        <_>
          1 21 1 1 2.</_></rects>
      <tilted>0</tilted></_>
    <_>
      <rects>
        <_>
          1 1 10 14 -1.</_>
        <_>
          1 1 5 7 2.</_>
        <_>
          6 8 5 7 2.</_></rects>
      <tilted>0</tilted></_>
    <_>
      <rects>
        <_>
          1 10 10 4 -1.</_>
        <_>
          6 10 5 4 2.</_></rects>
      <tilted>0</tilted></_>
    <_>
      <rects>
        <_>
          1 10 12 14 -1.</_>
        <_>
          7 10 6 14 2.</_></rects>
      <tilted>0</tilted></_>
    <_>
      <rects>
        <_>
          1 11 21 2 -1.</_>
        <_>
          8 11 7 2 3.</_></rects>
      <tilted>0</tilted></_>
    <_>
      <rects>
        <_>
          2 0 8 20 -1.</_>
        <_>
          2 10 8 10 2.</_></rects>
      <tilted>0</tilted></_>
    <_>
      <rects>
        <_>
          2 10 18 4 -1.</_>
        <_>
          8 10 6 4 3.</_></rects>
      <tilted>0</tilted></_>
    <_>
      <rects>
        <_>
          2 13 13 8 -1.</_>
        <_>
          2 17 13 4 2.</_></rects>
      <tilted>0</tilted></_>
    <_>
      <rects>
        <_>
          2 23 12 1 -1.</_>
        <_>
          6 23 4 1 3.</_></rects>
      <tilted>0</tilted></_>
    <_>
      <rects>
        <_>
          3 9 18 8 -1.</_>
        <_>
          9 9 6 8 3.</_></rects>
      <tilted>0</tilted></_>
    <_>
      <rects>
        <_>
          3 9 14 4 -1.</_>
        <_>
          3 11 14 2 2.</_></rects>
      <tilted>0</tilted></_>
    <_>
      <rects>
        <_>
          4 0 16 18 -1.</_>
        <_>
          4 9 16 9 2.</_></rects>
      <tilted>0</tilted></_>
    <_>
      <rects>
        <_>
          4 1 12 9 -1.</_>
        <_>
          8 1 4 9 3.</_></rects>
      <tilted>0</tilted></_>
    <_>
      <rects>
        <_>
          4 2 4 12 -1.</_>
        <_>
          4 2 2 6 2.</_>
        <_>
          6 8 2 6 2.</_></rects>
      <tilted>0</tilted></_>
    <_>
      <rects>
        <_>
          4 2 20 10 -1.</_>
        <_>
          4 7 20 5 2.</_></rects>
      <tilted>0</tilted></_>
    <_>
      <rects>
        <_>
          4 6 4 5 -1.</_>
        <_>
          6 6 2 5 2.</_></rects>
      <tilted>0</tilted></_>
    <_>
      <rects>
        <_>
          4 10 6 1 -1.</_>
        <_>
          7 10 3 1 2.</_></rects>
      <tilted>0</tilted></_>
    <_>
      <rects>
        <_>
          5 9 3 14 -1.</_>
        <_>
          5 16 3 7 2.</_></rects>
      <tilted>0</tilted></_>
    <_>
      <rects>
        <_>
          5 12 15 4 -1.</_>
        <_>
          10 12 5 4 3.</_></rects>
      <tilted>0</tilted></_>
    <_>
      <rects>
        <_>
          6 1 4 21 -1.</_>
        <_>
          6 8 4 7 3.</_></rects>
      <tilted>0</tilted></_>
    <_>
      <rects>
        <_>
          6 1 10 14 -1.</_>
        <_>
          6 8 10 7 2.</_></rects>
      <tilted>0</tilted></_>
    <_>
      <rects>
        <_>
          7 7 1 14 -1.</_>
        <_>
          7 14 1 7 2.</_></rects>
      <tilted>0</tilted></_>
    <_>
      <rects>
        <_>
          8 10 15 1 -1.</_>
        <_>
          13 10 5 1 3.</_></rects>
      <tilted>0</tilted></_>
    <_>
      <rects>
        <_>
          9 1 6 18 -1.</_>
        <_>
          9 7 6 6 3.</_></rects>
      <tilted>0</tilted></_>
    <_>
      <rects>
        <_>
          9 11 2 10 -1.</_>
        <_>
          9 11 1 5 2.</_>
        <_>
          10 16 1 5 2.</_></rects>
      <tilted>0</tilted></_>
    <_>
      <rects>
        <_>
          9 12 10 1 -1.</_>
        <_>
          14 12 5 1 2.</_></rects>
      <tilted>0</tilted></_>
    <_>
      <rects>
        <_>
          10 0 14 14 -1.</_>
        <_>
          10 0 7 7 2.</_>
        <_>
          17 7 7 7 2.</_></rects>
      <tilted>0</tilted></_>
    <_>
      <rects>
        <_>
          10 6 3 18 -1.</_>
        <_>
          10 12 3 6 3.</_></rects>
      <tilted>0</tilted></_>
    <_>
      <rects>
        <_>
          10 8 5 15 -1.</_>
        <_>
          10 13 5 5 3.</_></rects>
      <tilted>0</tilted></_>
    <_>
      <rects>
        <_>
          10 15 10 2 -1.</_>
        <_>
          10 15 5 1 2.</_>
        <_>
          15 16 5 1 2.</_></rects>
      <tilted>0</tilted></_>
    <_>
      <rects>
        <_>
          11 3 8 2 -1.</_>
        <_>
          11 3 4 1 2.</_>
        <_>
          15 4 4 1 2.</_></rects>
      <tilted>0</tilted></_>
    <_>
      <rects>
        <_>
          11 7 6 4 -1.</_>
        <_>
          11 7 3 2 2.</_>
        <_>
          14 9 3 2 2.</_></rects>
      <tilted>0</tilted></_>
    <_>
      <rects>
        <_>
          11 10 5 10 -1.</_>
        <_>
          11 15 5 5 2.</_></rects>
      <tilted>0</tilted></_>
    <_>
      <rects>
        <_>
          12 0 12 24 -1.</_>
        <_>
          12 12 12 12 2.</_></rects>
      <tilted>0</tilted></_>
    <_>
      <rects>
        <_>
          16 12 7 6 -1.</_>
        <_>
          16 15 7 3 2.</_></rects>
      <tilted>0</tilted></_>
    <_>
      <rects>
        <_>
          17 3 4 1 -1.</_>
        <_>
          19 3 2 1 2.</_></rects>
      <tilted>0</tilted></_>
    <_>
      <rects>
        <_>
          19 12 1 8 -1.</_>
        <_>
          19 16 1 4 2.</_></rects>
      <tilted>0</tilted></_>
    <_>
      <rects>
        <_>
          20 0 4 1 -1.</_>
        <_>
          22 0 2 1 2.</_></rects>
      <tilted>0</tilted></_>
    <_>
      <rects>
        <_>
          22 7 2 5 -1.</_>
        <_>
          23 7 1 5 2.</_></rects>
      <tilted>0</tilted></_></features></cascade>
</opencv_storage>
