<?xml version="1.0"?>
<opencv_storage>
<cascade>
  <stageType>BOOST</stageType>
  <featureType>HAAR</featureType>
  <height>24</height>
  <width>24</width>
  <stageParams>
    <boostType>GAB</boostType>
    <minHitRate>9.9500000476837158e-01</minHitRate>
    <maxFalseAlarm>5.0000000000000000e-01</maxFalseAlarm>
    <weightTrimRate>9.4999998807907104e-01</weightTrimRate>
    <maxDepth>1</maxDepth>
    <maxWeakCount>100</maxWeakCount></stageParams>
  <featureParams>
    <maxCatCount>0</maxCatCount>
    <featSize>1</featSize>
    <mode>BASIC</mode></featureParams>
  <stageNum>13</stageNum>
  <stages>
    <!-- stage 0 -->
    <_>
      <maxWeakCount>3</maxWeakCount>
      <stageThreshold>-1.3787834644317627e+00</stageThreshold>
      <weakClassifiers>
        <_>
          <internalNodes>
            0 -1 5 -3.5965915769338608e-02</internalNodes>
          <leafValues>
            7.1428573131561279e-01 -9.7235929965972900e-01</leafValues></_>
        <_>
          <internalNodes>
            0 -1 12 2.4719636887311935e-02</internalNodes>
          <leafValues>
            -8.9473211765289307e-01 7.5539904832839966e-01</leafValues></_>
        <_>
          <internalNodes>
            0 -1 7 -9.7593843936920166e-02</internalNodes>
          <leafValues>
            4.8830795288085938e-01 -8.9938485622406006e-01</leafValues></_></weakClassifiers></_>
    <!-- stage 1 -->
    <_>
      <maxWeakCount>3</maxWeakCount>
      <stageThreshold>-1.1849523782730103e+00</stageThreshold>
      <weakClassifiers>
        <_>
          <internalNodes>
            0 -1 4 -3.1332559883594513e-02</internalNodes>
          <leafValues>
            5.5555558204650879e-01 -9.7428286075592041e-01</leafValues></_>
        <_>
          <internalNodes>
            0 -1 14 1.0772563517093658e-02</internalNodes>
          <leafValues>
            -9.1757500171661377e-01 6.1742866039276123e-01</leafValues></_>
        <_>
          <internalNodes>
            0 -1 13 8.8296700268983841e-03</internalNodes>
          <leafValues>
            -8.2293301820755005e-01 7.2907763719558716e-01</leafValues></_></weakClassifiers></_>
    <!-- stage 2 -->
    <_>
      <maxWeakCount>3</maxWeakCount>
      <stageThreshold>-1.7887854576110840e+00</stageThreshold>
      <weakClassifiers>
        <_>
          <internalNodes>
            0 -1 16 4.0710397064685822e-02</internalNodes>
          <leafValues>
            -9.6850395202636719e-01 1.</leafValues></_>
        <_>
          <internalNodes>
            0 -1 32 -4.1620574891567230e-02</internalNodes>
          <leafValues>
            3.9625439047813416e-01 -8.8008612394332886e-01</leafValues></_>
        <_>
          <internalNodes>
            0 -1 1 1.0532590094953775e-03</internalNodes>
          <leafValues>
            5.9804614633321762e-02 -1.</leafValues></_></weakClassifiers></_>
    <!-- stage 3 -->
    <_>
      <maxWeakCount>3</maxWeakCount>
      <stageThreshold>-1.6140686273574829e+00</stageThreshold>
      <weakClassifiers>
        <_>
          <internalNodes>
            0 -1 15 1.1353006958961487e-01</internalNodes>
          <leafValues>
            -9.6653544902801514e-01 5.0000000000000000e-01</leafValues></_>
        <_>
          <internalNodes>
            0 -1 33 3.9989100769162178e-03</internalNodes>
          <leafValues>
            -8.2637387514114380e-01 5.5110144615173340e-01</leafValues></_>
        <_>
          <internalNodes>
            0 -1 3 -3.0068244086578488e-04</internalNodes>
          <leafValues>
            1.7884065210819244e-01 -9.0274101495742798e-01</leafValues></_></weakClassifiers></_>
    <!-- stage 4 -->
    <_>
      <maxWeakCount>4</maxWeakCount>
      <stageThreshold>-2.2742629051208496e+00</stageThreshold>
      <weakClassifiers>
        <_>
          <internalNodes>
            0 -1 9 -1.2015327811241150e-01</internalNodes>
          <leafValues>
            3.3333334326744080e-01 -9.6844184398651123e-01</leafValues></_>
        <_>
          <internalNodes>
            0 -1 24 -1.1855129152536392e-02</internalNodes>
          <leafValues>
            5.9710371494293213e-01 -8.3327466249465942e-01</leafValues></_>
        <_>
          <internalNodes>
            0 -1 31 -1.8601585179567337e-02</internalNodes>
          <leafValues>
            2.6923948526382446e-01 -7.3942774534225464e-01</leafValues></_>
        <_>
          <internalNodes>
            0 -1 40 -6.1291255406104028e-05</internalNodes>
          <leafValues>
            2.6688128709793091e-01 -9.6377027034759521e-01</leafValues></_></weakClassifiers></_>
    <!-- stage 5 -->
    <_>
      <maxWeakCount>4</maxWeakCount>
      <stageThreshold>-1.9573024511337280e+00</stageThreshold>
      <weakClassifiers>
        <_>
          <internalNodes>
            0 -1 0 1.3209745287895203e-01</internalNodes>
          <leafValues>
            -9.6656835079193115e-01 1.</leafValues></_>
        <_>
          <internalNodes>
            0 -1 36 -1.5196237713098526e-02</internalNodes>
          <leafValues>
            1.0732761025428772e-01 -8.6581736803054810e-01</leafValues></_>
        <_>
          <internalNodes>
            0 -1 28 -1.7309572547674179e-02</internalNodes>
          <leafValues>
            3.8174083828926086e-01 -6.5449905395507813e-01</leafValues></_>
        <_>
          <internalNodes>
            0 -1 26 -5.0563000142574310e-02</internalNodes>
          <leafValues>
            8.6520802974700928e-01 -4.4356262683868408e-01</leafValues></_></weakClassifiers></_>
    <!-- stage 6 -->
    <_>
      <maxWeakCount>4</maxWeakCount>
      <stageThreshold>-2.3777048587799072e+00</stageThreshold>
      <weakClassifiers>
        <_>
          <internalNodes>
            0 -1 8 -2.6736387610435486e-01</internalNodes>
          <leafValues>
            6.0000002384185791e-01 -9.6847289800643921e-01</leafValues></_>
        <_>
          <internalNodes>
            0 -1 39 2.8586171567440033e-02</internalNodes>
          <leafValues>
            -8.2547247409820557e-01 1.</leafValues></_>
        <_>
          <internalNodes>
            0 -1 42 -2.9264362528920174e-03</internalNodes>
          <leafValues>
            2.1200035512447357e-01 -8.0772918462753296e-01</leafValues></_>
        <_>
          <internalNodes>
            0 -1 41 -5.6392258557025343e-05</internalNodes>
          <leafValues>
            2.2396980226039886e-01 -9.0795779228210449e-01</leafValues></_></weakClassifiers></_>
    <!-- stage 7 -->
    <_>
      <maxWeakCount>3</maxWeakCount>
      <stageThreshold>-1.7533297538757324e+00</stageThreshold>
      <weakClassifiers>
        <_>
          <internalNodes>
            0 -1 37 -4.7548227012157440e-02</internalNodes>
          <leafValues>
            5.0000000000000000e-01 -9.6653544902801514e-01</leafValues></_>
        <_>
          <internalNodes>
            0 -1 29 2.2492721676826477e-02</internalNodes>
          <leafValues>
            -8.3636564016342163e-01 2.9042917490005493e-01</leafValues></_>
        <_>
          <internalNodes>
            0 -1 43 -1.5628111214027740e-05</internalNodes>
          <leafValues>
            4.9571309238672256e-02 -9.3246328830718994e-01</leafValues></_></weakClassifiers></_>
    <!-- stage 8 -->
    <_>
      <maxWeakCount>4</maxWeakCount>
      <stageThreshold>-2.2495827674865723e+00</stageThreshold>
      <weakClassifiers>
        <_>
          <internalNodes>
            0 -1 38 -2.7755310758948326e-02</internalNodes>
          <leafValues>
            5.0000000000000000e-01 -9.6653544902801514e-01</leafValues></_>
        <_>
          <internalNodes>
            0 -1 19 3.6727925762534142e-03</internalNodes>
          <leafValues>
            -8.4813755750656128e-01 3.4921464323997498e-01</leafValues></_>
        <_>
          <internalNodes>
            0 -1 21 -1.8156574666500092e-01</internalNodes>
          <leafValues>
            4.4999468326568604e-01 -6.6761887073516846e-01</leafValues></_>
        <_>
          <internalNodes>
            0 -1 44 -2.0711761317215860e-04</internalNodes>
          <leafValues>
            -8.8490450382232666e-01 3.2808604836463928e-01</leafValues></_></weakClassifiers></_>
    <!-- stage 9 -->
    <_>
      <maxWeakCount>3</maxWeakCount>
      <stageThreshold>-1.7367810010910034e+00</stageThreshold>
      <weakClassifiers>
        <_>
          <internalNodes>
            0 -1 23 -7.2826854884624481e-03</internalNodes>
          <leafValues>
            3.3333334326744080e-01 -9.6844184398651123e-01</leafValues></_>
        <_>
          <internalNodes>
            0 -1 11 2.1201509982347488e-02</internalNodes>
          <leafValues>
            -8.2248169183731079e-01 8.2464826107025146e-01</leafValues></_>
        <_>
          <internalNodes>
            0 -1 17 -1.0395105928182602e-03</internalNodes>
          <leafValues>
            -9.1040295362472534e-01 5.4142512381076813e-02</leafValues></_></weakClassifiers></_>
    <!-- stage 10 -->
    <_>
      <maxWeakCount>3</maxWeakCount>
      <stageThreshold>-2.0668318271636963e+00</stageThreshold>
      <weakClassifiers>
        <_>
          <internalNodes>
            0 -1 34 7.7244369313120842e-03</internalNodes>
          <leafValues>
            -9.6841067075729370e-01 1.4285714924335480e-01</leafValues></_>
        <_>
          <internalNodes>
            0 -1 27 4.8073260113596916e-03</internalNodes>
          <leafValues>
            -8.6218452453613281e-01 -1.5855859220027924e-01</leafValues></_>
        <_>
          <internalNodes>
            0 -1 45 -6.6409309511072934e-05</internalNodes>
          <leafValues>
            5.5657096207141876e-02 -9.3986248970031738e-01</leafValues></_></weakClassifiers></_>
    <!-- stage 11 -->
    <_>
      <maxWeakCount>5</maxWeakCount>
      <stageThreshold>-1.9785294532775879e+00</stageThreshold>
      <weakClassifiers>
        <_>
          <internalNodes>
            0 -1 22 4.5754969120025635e-02</internalNodes>
          <leafValues>
            -9.6656835079193115e-01 1.</leafValues></_>
        <_>
          <internalNodes>
            0 -1 18 2.8121671639382839e-03</internalNodes>
          <leafValues>
            -8.6489927768707275e-01 2.5197379291057587e-02</leafValues></_>
        <_>
          <internalNodes>
            0 -1 35 3.7151170545257628e-04</internalNodes>
          <leafValues>
            1.1936461925506592e-01 -8.4228497743606567e-01</leafValues></_>
        <_>
          <internalNodes>
            0 -1 25 -2.2147112758830190e-04</internalNodes>
          <leafValues>
            -9.7153276205062866e-01 1.8236936628818512e-01</leafValues></_>
        <_>
          <internalNodes>
            0 -1 10 -2.2486199159175158e-03</internalNodes>
          <leafValues>
            6.6183179616928101e-01 -4.4879576563835144e-01</leafValues></_></weakClassifiers></_>
    <!-- stage 12 -->
    <_>
      <maxWeakCount>4</maxWeakCount>
      <stageThreshold>-1.6818343400955200e+00</stageThreshold>
      <weakClassifiers>
        <_>
          <internalNodes>
            0 -1 2 2.4596416950225830e-01</internalNodes>
          <leafValues>
            -9.6656835079193115e-01 1.</leafValues></_>
        <_>
          <internalNodes>
            0 -1 30 2.9985711444169283e-03</internalNodes>
          <leafValues>
            -8.5492163896560669e-01 1.9386097788810730e-01</leafValues></_>
        <_>
          <internalNodes>
            0 -1 6 3.1462557672057301e-05</internalNodes>
          <leafValues>
            -2.0106660202145576e-02 -9.7963351011276245e-01</leafValues></_>
        <_>
          <internalNodes>
            0 -1 20 -1.1906603351235390e-02</internalNodes>
          <leafValues>
            -1. 1.5976236760616302e-01</leafValues></_></weakClassifiers></_></stages>
  <features>
    <_>
      <rects>
        <_>
          0 9 18 4 -1.</_>
        <_>
          6 9 6 4 3.</_></rects>
      <tilted>0</tilted></_>
    <_>
      <rects>
        <_>
          2 23 22 1 -1.</_>
        <_>
          13 23 11 1 2.</_></rects>
      <tilted>0</tilted></_>
    <_>
      <rects>
        <_>
          3 5 18 14 -1.</_>
        <_>
          3 5 9 7 2.</_>
        <_>
          12 12 9 7 2.</_></rects>
      <tilted>0</tilted></_>
    <_>
      <rects>
        <_>
          4 2 1 4 -1.</_>
        <_>
          4 4 1 2 2.</_></rects>
      <tilted>0</tilted></_>
    <_>
      <rects>
        <_>
          4 7 8 6 -1.</_>
        <_>
          4 7 4 3 2.</_>
        <_>
          8 10 4 3 2.</_></rects>
      <tilted>0</tilted></_>
    <_>
      <rects>
        <_>
          4 12 18 1 -1.</_>
        <_>
          10 12 6 1 3.</_></rects>
      <tilted>0</tilted></_>
    <_>
      <rects>
        <_>
          5 2 2 2 -1.</_>
        <_>
          5 2 1 1 2.</_>
        <_>
          6 3 1 1 2.</_></rects>
      <tilted>0</tilted></_>
    <_>
      <rects>
        <_>
          5 2 4 22 -1.</_>
        <_>
          5 13 4 11 2.</_></rects>
      <tilted>0</tilted></_>
    <_>
      <rects>
        <_>
          5 9 11 14 -1.</_>
        <_>
          5 16 11 7 2.</_></rects>
      <tilted>0</tilted></_>
    <_>
      <rects>
        <_>
          6 8 18 3 -1.</_>
        <_>
          15 8 9 3 2.</_></rects>
      <tilted>0</tilted></_>
    <_>
      <rects>
        <_>
          6 11 2 8 -1.</_>
        <_>
          6 11 1 4 2.</_>
        <_>
          7 15 1 4 2.</_></rects>
      <tilted>0</tilted></_>
    <_>
      <rects>
        <_>
          6 14 10 1 -1.</_>
        <_>
          11 14 5 1 2.</_></rects>
      <tilted>0</tilted></_>
    <_>
      <rects>
        <_>
          7 8 10 4 -1.</_>
        <_>
          7 8 5 2 2.</_>
        <_>
          12 10 5 2 2.</_></rects>
      <tilted>0</tilted></_>
    <_>
      <rects>
        <_>
          7 11 6 2 -1.</_>
        <_>
          10 11 3 2 2.</_></rects>
      <tilted>0</tilted></_>
    <_>
      <rects>
        <_>
          7 11 7 4 -1.</_>
        <_>
          7 13 7 2 2.</_></rects>
      <tilted>0</tilted></_>
    <_>
      <rects>
        <_>
          8 0 2 24 -1.</_>
        <_>
          8 8 2 8 3.</_></rects>
      <tilted>0</tilted></_>
    <_>
      <rects>
        <_>
          8 2 1 18 -1.</_>
        <_>
          8 8 1 6 3.</_></rects>
      <tilted>0</tilted></_>
    <_>
      <rects>
        <_>
          8 4 14 2 -1.</_>
        <_>
          8 4 7 1 2.</_>
        <_>
          15 5 7 1 2.</_></rects>
      <tilted>0</tilted></_>
    <_>
      <rects>
        <_>
          8 7 1 2 -1.</_>
        <_>
          8 8 1 1 2.</_></rects>
      <tilted>0</tilted></_>
    <_>
      <rects>
        <_>
          8 16 3 1 -1.</_>
        <_>
          9 16 1 1 3.</_></rects>
      <tilted>0</tilted></_>
    <_>
      <rects>
        <_>
          9 2 12 2 -1.</_>
        <_>
          15 2 6 2 2.</_></rects>
      <tilted>0</tilted></_>
    <_>
      <rects>
        <_>
          9 8 15 14 -1.</_>
        <_>
          9 15 15 7 2.</_></rects>
      <tilted>0</tilted></_>
    <_>
      <rects>
        <_>
          9 15 12 4 -1.</_>
        <_>
          9 15 6 2 2.</_>
        <_>
          15 17 6 2 2.</_></rects>
      <tilted>0</tilted></_>
    <_>
      <rects>
        <_>
          10 3 2 4 -1.</_>
        <_>
          10 3 1 2 2.</_>
        <_>
          11 5 1 2 2.</_></rects>
      <tilted>0</tilted></_>
    <_>
      <rects>
        <_>
          10 5 3 3 -1.</_>
        <_>
          11 5 1 3 3.</_></rects>
      <tilted>0</tilted></_>
    <_>
      <rects>
        <_>
          10 22 6 2 -1.</_>
        <_>
          12 22 2 2 3.</_></rects>
      <tilted>0</tilted></_>
    <_>
      <rects>
        <_>
          11 8 12 3 -1.</_>
        <_>
          17 8 6 3 2.</_></rects>
      <tilted>0</tilted></_>
    <_>
      <rects>
        <_>
          11 14 3 3 -1.</_>
        <_>
          12 14 1 3 3.</_></rects>
      <tilted>0</tilted></_>
    <_>
      <rects>
        <_>
          12 1 1 14 -1.</_>
        <_>
          12 8 1 7 2.</_></rects>
      <tilted>0</tilted></_>
    <_>
      <rects>
        <_>
          13 9 6 4 -1.</_>
        <_>
          13 9 3 2 2.</_>
        <_>
          16 11 3 2 2.</_></rects>
      <tilted>0</tilted></_>
    <_>
      <rects>
        <_>
          14 10 3 1 -1.</_>
        <_>
          15 10 1 1 3.</_></rects>
      <tilted>0</tilted></_>
    <_>
      <rects>
        <_>
          15 6 2 12 -1.</_>
        <_>
          15 12 2 6 2.</_></rects>
      <tilted>0</tilted></_>
    <_>
      <rects>
        <_>
          15 8 2 15 -1.</_>
        <_>
          15 13 2 5 3.</_></rects>
      <tilted>0</tilted></_>
    <_>
      <rects>
        <_>
          15 10 2 1 -1.</_>
        <_>
          16 10 1 1 2.</_></rects>
      <tilted>0</tilted></_>
    <_>
      <rects>
        <_>
          15 15 4 2 -1.</_>
        <_>
          15 15 2 1 2.</_>
        <_>
          17 16 2 1 2.</_></rects>
      <tilted>0</tilted></_>
    <_>
      <rects>
        <_>
          16 0 6 2 -1.</_>
        <_>
          18 0 2 2 3.</_></rects>
      <tilted>0</tilted></_>
    <_>
      <rects>
        <_>
          16 9 1 8 -1.</_>
        <_>
          16 13 1 4 2.</_></rects>
      <tilted>0</tilted></_>
    <_>
      <rects>
        <_>
          16 15 3 8 -1.</_>
        <_>
          16 19 3 4 2.</_></rects>
      <tilted>0</tilted></_>
    <_>
      <rects>
        <_>
          16 18 4 4 -1.</_>
        <_>
          16 20 4 2 2.</_></rects>
      <tilted>0</tilted></_>
    <_>
      <rects>
        <_>
          16 18 8 4 -1.</_>
        <_>
          16 18 4 2 2.</_>
        <_>
          20 20 4 2 2.</_></rects>
      <tilted>0</tilted></_>
    <_>
      <rects>
        <_>
          18 0 4 2 -1.</_>
        <_>
          20 0 2 2 2.</_></rects>
      <tilted>0</tilted></_>
    <_>
      <rects>
        <_>
          18 3 4 6 -1.</_>
        <_>
          18 5 4 2 3.</_></rects>
      <tilted>0</tilted></_>
    <_>
      <rects>
        <_>
          19 11 1 6 -1.</_>
        <_>
          19 14 1 3 2.</_></rects>
      <tilted>0</tilted></_>
    <_>
      <rects>
        <_>
          21 21 1 2 -1.</_>
        <_>
          21 22 1 1 2.</_></rects>
      <tilted>0</tilted></_>
    <_>
      <rects>
        <_>
          21 21 1 3 -1.</_>
        <_>
          21 22 1 1 3.</_></rects>
      <tilted>0</tilted></_>
    <_>
      <rects>
        <_>
          22 2 2 1 -1.</_>
        <_>
          23 2 1 1 2.</_></rects>
      <tilted>0</tilted></_></features></cascade>
</opencv_storage>
